[
  {
    "id": "Player (59)",
    "playerScore": 8.850107192993164,
    "weights": [
      43.0032844543457,
      -49.36573028564453,
      67.07455444335938,
      93.5254135131836,
      -22.82672119140625,
      -77.36627960205078,
      -68.11992645263672
    ]
  },
  {
    "id": "Player (550)",
    "playerScore": 13.040203094482422,
    "weights": [
      -37.82714080810547,
      -47.86620330810547,
      3.1583251953125,
      -79.9320297241211,
      8.70416259765625,
      45.04689407348633,
      -54.023521423339847
    ]
  },
  {
    "id": "Player (60)",
    "playerScore": 23.8304500579834,
    "weights": [
      17.74236297607422,
      -78.37052154541016,
      -92.7590103149414,
      61.507240295410159,
      5.642425537109375,
      -23.468353271484376,
      -19.715469360351564
    ]
  },
  {
    "id": "Player (142)",
    "playerScore": 13.040203094482422,
    "weights": [
      -28.526493072509767,
      -49.464881896972659,
      10.877655029296875,
      -34.58806228637695,
      36.403717041015628,
      -12.930335998535157,
      57.661415100097659
    ]
  },
  {
    "id": "Player (49)",
    "playerScore": 12.040180206298829,
    "weights": [
      15.649093627929688,
      -87.65741729736328,
      -84.01538848876953,
      10.885726928710938,
      -35.86689376831055,
      74.61612701416016,
      -30.909202575683595
    ]
  },
  {
    "id": "Player (112)",
    "playerScore": 15.890268325805664,
    "weights": [
      65.3621826171875,
      -64.50366973876953,
      -8.426254272460938,
      55.813682556152347,
      -16.769630432128908,
      -48.87384796142578,
      33.89363098144531
    ]
  },
  {
    "id": "Player (47)",
    "playerScore": 14.010225296020508,
    "weights": [
      21.15729522705078,
      -59.31781768798828,
      -43.15868377685547,
      0.41980743408203127,
      -4.0589141845703129,
      29.384803771972658,
      21.21691131591797
    ]
  },
  {
    "id": "Player (50)",
    "playerScore": 22.510419845581056,
    "weights": [
      33.20995330810547,
      -74.55013275146485,
      13.120452880859375,
      52.64069366455078,
      -16.29291534423828,
      -12.352348327636719,
      29.647998809814454
    ]
  },
  {
    "id": "Player (279)",
    "playerScore": 11.020156860351563,
    "weights": [
      70.82770538330078,
      -98.48188018798828,
      52.03986358642578,
      -59.65343475341797,
      -57.78339385986328,
      62.27143859863281,
      -45.153236389160159
    ]
  },
  {
    "id": "Player (412)",
    "playerScore": 10.500144958496094,
    "weights": [
      85.01793670654297,
      -79.33838653564453,
      -69.13159942626953,
      -43.995933532714847,
      -24.546119689941408,
      -26.48688507080078,
      38.609092712402347
    ]
  },
  {
    "id": "Player (396)",
    "playerScore": 12.040180206298829,
    "weights": [
      46.04894256591797,
      -73.32691192626953,
      -92.3520736694336,
      -7.020111083984375,
      46.01378631591797,
      -79.48465728759766,
      88.66564178466797
    ]
  },
  {
    "id": "Player (248)",
    "playerScore": 14.970247268676758,
    "weights": [
      62.566993713378909,
      -82.97832489013672,
      -14.124191284179688,
      -44.27497100830078,
      25.131267547607423,
      -94.85070037841797,
      81.9032211303711
    ]
  },
  {
    "id": "Player (44)",
    "playerScore": 10.500144958496094,
    "weights": [
      -89.78075408935547,
      -92.03527069091797,
      49.874183654785159,
      -54.110862731933597,
      23.01250457763672,
      93.1170883178711,
      31.286060333251954
    ]
  },
  {
    "id": "Player (530)",
    "playerScore": 15.410257339477539,
    "weights": [
      52.81584930419922,
      -77.64868927001953,
      23.43170166015625,
      4.762779235839844,
      -0.7303924560546875,
      -58.18091583251953,
      72.31368255615235
    ]
  },
  {
    "id": "Player (708)",
    "playerScore": 14.010225296020508,
    "weights": [
      -78.56999206542969,
      -62.83540725708008,
      44.78105926513672,
      60.775428771972659,
      32.24020767211914,
      7.124267578125,
      74.55865478515625
    ]
  },
  {
    "id": "Player (508)",
    "playerScore": 21.19038963317871,
    "weights": [
      1.9258651733398438,
      -92.62264251708985,
      97.74568939208985,
      -6.442138671875,
      8.893753051757813,
      26.42920684814453,
      79.78701782226563
    ]
  },
  {
    "id": "Player (626)",
    "playerScore": 19.430349349975587,
    "weights": [
      61.06005096435547,
      -64.4647445678711,
      -63.24757766723633,
      11.617561340332032,
      9.926910400390625,
      -92.31998443603516,
      -44.087562561035159
    ]
  },
  {
    "id": "Player (436)",
    "playerScore": 14.010225296020508,
    "weights": [
      -18.254302978515626,
      -77.61429595947266,
      -57.38903045654297,
      2.4470977783203127,
      5.9715728759765629,
      55.68861770629883,
      60.87846755981445
    ]
  },
  {
    "id": "Player (77)",
    "playerScore": 14.010225296020508,
    "weights": [
      36.24644470214844,
      -80.56172943115235,
      -7.9347686767578129,
      -10.922264099121094,
      -29.96088409423828,
      29.268455505371095,
      61.78531265258789
    ]
  },
  {
    "id": "Player (86)",
    "playerScore": 18.550329208374025,
    "weights": [
      9.782997131347657,
      -89.77946472167969,
      8.851737976074219,
      57.72305679321289,
      -19.064048767089845,
      24.285385131835939,
      -78.10834503173828
    ]
  },
  {
    "id": "Player (450)",
    "playerScore": 25.590490341186525,
    "weights": [
      67.31847381591797,
      -49.025230407714847,
      -67.38269805908203,
      -3.0853729248046877,
      -7.4717254638671879,
      -83.68988800048828,
      -45.56871795654297
    ]
  },
  {
    "id": "Player (850)",
    "playerScore": 18.110319137573243,
    "weights": [
      -37.6664924621582,
      -96.5119857788086,
      55.21247100830078,
      -0.98876953125,
      52.476139068603519,
      -18.256851196289064,
      75.01921844482422
    ]
  },
  {
    "id": "Player (724)",
    "playerScore": 11.020156860351563,
    "weights": [
      40.40845489501953,
      -85.26192474365235,
      92.17676544189453,
      -36.54247283935547,
      -26.51537322998047,
      60.54448699951172,
      84.40717315673828
    ]
  },
  {
    "id": "Player (601)",
    "playerScore": 20.31036949157715,
    "weights": [
      -15.660140991210938,
      -99.78339385986328,
      25.428852081298829,
      43.24177551269531,
      31.458213806152345,
      -41.03455352783203,
      -58.47922897338867
    ]
  },
  {
    "id": "Player (138)",
    "playerScore": 17.220298767089845,
    "weights": [
      -9.2921142578125,
      -78.9864501953125,
      -53.20142364501953,
      -46.26445770263672,
      3.7125701904296877,
      30.307636260986329,
      -72.04407501220703
    ]
  },
  {
    "id": "Player (68)",
    "playerScore": 16.330278396606447,
    "weights": [
      85.65996551513672,
      -81.50943756103516,
      -22.58892059326172,
      3.62725830078125,
      -60.409584045410159,
      85.65518951416016,
      91.79387664794922
    ]
  },
  {
    "id": "Player (307)",
    "playerScore": 12.540191650390625,
    "weights": [
      55.005653381347659,
      -48.14167404174805,
      64.42241668701172,
      21.086700439453126,
      -40.444435119628909,
      -2.5579986572265627,
      10.273933410644532
    ]
  },
  {
    "id": "Player (803)",
    "playerScore": 20.7703800201416,
    "weights": [
      2.782623291015625,
      -54.964073181152347,
      40.33075714111328,
      -32.88288116455078,
      16.846900939941408,
      -32.58384323120117,
      -70.7271957397461
    ]
  },
  {
    "id": "Player (842)",
    "playerScore": 14.480236053466797,
    "weights": [
      -34.49040603637695,
      -70.5624008178711,
      -15.321311950683594,
      -19.40026092529297,
      36.78241729736328,
      6.067985534667969,
      7.764732360839844
    ]
  },
  {
    "id": "Player (736)",
    "playerScore": 20.31036949157715,
    "weights": [
      -18.07067108154297,
      -72.30961608886719,
      35.06369400024414,
      -4.3721160888671879,
      50.99568176269531,
      -97.39287567138672,
      -52.828697204589847
    ]
  },
  {
    "id": "Player (12)",
    "playerScore": 21.19038963317871,
    "weights": [
      -6.8888702392578129,
      -71.23682403564453,
      -76.77558898925781,
      -17.770751953125,
      -6.964302062988281,
      81.4172134399414,
      -30.325828552246095
    ]
  },
  {
    "id": "Player (200)",
    "playerScore": 16.330278396606447,
    "weights": [
      11.518714904785157,
      -80.37885284423828,
      69.63994598388672,
      -45.16899871826172,
      -7.275794982910156,
      40.078311920166019,
      64.70526123046875
    ]
  },
  {
    "id": "Player (464)",
    "playerScore": 11.530168533325196,
    "weights": [
      7.211372375488281,
      -82.41439056396485,
      -87.9287338256836,
      -5.388572692871094,
      39.326210021972659,
      -34.802162170410159,
      -24.206687927246095
    ]
  },
  {
    "id": "Player (686)",
    "playerScore": 13.040203094482422,
    "weights": [
      44.79997253417969,
      -80.40264129638672,
      15.12890625,
      -63.471107482910159,
      -44.81337356567383,
      89.6673812866211,
      35.90758514404297
    ]
  },
  {
    "id": "The chosen one",
    "playerScore": 12.170183181762696,
    "weights": [
      -4.784812927246094,
      -82.04796600341797,
      -16.072006225585939,
      34.582969665527347,
      3.3867645263671877,
      22.381683349609376,
      55.30405044555664
    ]
  }
]
{"id":"The chosen one","playerScore":27.99054527282715,"weights":[-4.784812927246094,-82.04796600341797,-16.072006225585939,34.582969665527347,3.3867645263671877,22.381683349609376,55.30405044555664]},{"id":"bot (17)","playerScore":6.520054340362549,"weights":[-33.65603256225586,-92.11612701416016,-45.44207000732422,71.38597869873047,8.241256713867188,82.62786102294922,-80.95917510986328]},